{
  "network": {
    "input_dim": 64,
    "output_dim": 10,
    "next_id": 94,
    "neurons": {
      "0": {
        "neuron_id": 0,
        "weights": [
          0.05386687835943011,
          -0.18384495346222132,
          0.13266228237607489,
          0.1662699222762573,
          -0.3448975530576757,
          -0.23019498990612489,
          0.02259920399730242,
          -0.05590432038653999,
          -0.002970053100766465,
          -0.15079828645932114,
          0.1554570678468058,
          0.13749548797350467,
          0.011672688503003474,
          0.19926997537000116,
          0.082644756543621,
          -0.15190288188180687,
          0.06518654499814784,
          -0.16950809735199465,
          0.15528954124743458,
          -0.008825737553823845,
          -0.03267935771225664,
          -0.12037247458957333,
          0.21611681771432162,
          -0.02731721116602375,
          -0.07571837690559968,
          -0.06224900535838066,
          0.09409985869816527,
          0.06460199401405324,
          0.07296150711908922,
          0.07615911317611597,
          0.37859338537185094,
          -0.07184470351540088,
          -0.09055257683499689,
          -0.14385605362218798,
          0.10889080669362673,
          0.1995759909886666,
          -0.020143255001682285,
          -0.14852008552950074,
          -0.14574906464405102,
          0.11500964301547673,
          0.1313900161507853,
          0.09601701658725521,
          -0.11764660674232752,
          0.0410407114674296,
          0.020627331727912042,
          0.03865904742881383,
          0.1540482995520678,
          0.03952648219542632,
          0.12001609607191444,
          0.011946404575468016,
          0.051109571846566205,
          0.11159704634341415,
          -0.25759119036634626,
          -0.056510421209099944,
          -0.08315092338378784,
          -0.11293871471068428,
          -0.04863873790833019,
          0.26427078466243764,
          -0.15305876331725163,
          0.17116904765194713,
          -0.297492156840848,
          -0.05919986890520043,
          0.02877094899866128,
          0.10363044644678322
        ],
        "bias": 0.0,
        "routing": [
          [
            48,
            -0.14071201037855507
          ],
          [
            49,
            0.0854867487064261
          ],
          [
            50,
            0.08108506152135252
          ],
          [
            51,
            0.39807045322819284
          ],
          [
            52,
            -0.13643141092318029
          ],
          [
            53,
            0.18471571913293477
          ],
          [
            54,
            0.23728676719445516
          ],
          [
            55,
            0.14383563644157316
          ],
          [
            56,
            -0.1961625568663148
          ],
          [
            57,
            0.28735756281523833
          ],
          [
            58,
            0.25093490081706177
          ],
          [
            59,
            0.12238967759650891
          ],
          [
            60,
            0.04171229698164987
          ],
          [
            61,
            0.046154104280400274
          ],
          [
            62,
            -0.016071876290021925
          ],
          [
            63,
            0.13079971780664898
          ],
          [
            64,
            0.006355375244315429
          ],
          [
            65,
            -0.17320443530180366
          ],
          [
            66,
            -0.21404287319777734
          ],
          [
            67,
            -0.15350875746019815
          ],
          [
            68,
            0.04534255413885893
          ],
          [
            69,
            -0.00550233707134845
          ],
          [
            70,
            0.04395686773606768
          ],
          [
            71,
            0.10222805280602508
          ]
        ],
        "memory": [
          -0.003190992570829547,
          0.15324955795632866,
          0.2342246467182221,
          0.3462566499258957,
          1.0741485648266158,
          0.15918421077294537,
          0.3377513269247041,
          0.34419501850454903,
          -0.0016126696576591138,
          0.19595190608743435,
          0.00520535437803879,
          0.4477589796041679,
          0.20492476272141397,
          0.24993164100569387,
          -0.0008957527482313505,
          0.14815949749192964,
          0.8974091257070093,
          0.43998475723802016,
          0.23899640047937537,
          0.2458549132696855,
          0.6375234538138979,
          0.4417357963654165,
          0.02497661579950089,
          0.5112049854095458,
          0.021485636808772496,
          0.20649450992109514,
          0.1482203853326585,
          0.26685079354183333,
          0.2497549087977879,
          0.3465427648982317,
          0.7315897265935385,
          -0.0031888952725685244
        ],
        "memory_capacity": 32,
        "layer": 1,
        "tags": [
          "hidden"
        ]
      },
      "1": {
        "neuron_id": 1,
        "weights": [
          0.12572828438291073,
          0.14024530246136652,
          -0.06164646583915973,
          -0.08173302197171803,
          0.1516701409328594,
          -0.03381814634852607,
          -0.22551161247479481,
          -0.20033876851346782,
          -0.16253773660230308,
          0.08788643336504152,
          0.025177550947745538,
          0.12206171904282831,
          -0.07552831087611528,
          0.028026122661891254,
          0.11058980245486692,
          -0.05468525899319356,
          0.08074721698873545,
          -0.11701308039287904,
          -0.06417945921050566,
          -0.06748236337052249,
          -0.21139658065193193,
          0.08608538585368015,
          -0.08297939446554521,
          0.0022086690193244053,
          0.08498480563628609,
          0.07893630564549435,
          0.11762458066380177,
          -0.017409938486264032,
          -0.07482927672781009,
          -0.01409232187899354,
          -0.2982814050953219,
          -0.25581576059749894,
          -0.23382246634215392,
          -0.17628999857844493,
          0.07067076666493759,
          -0.16006759506687207,
          -0.06685032658801918,
          0.2296732849184955,
          -0.06297916745749556,
          0.1303755649234321,
          -0.16504184814265907,
          -0.03631657256965124,
          -0.16794175932601266,
          -0.0599331467539553,
          0.14854689557059048,
          -0.3053499961303317,
          0.07679597606476082,
          0.042026114134655526,
          -0.10503186567872254,
          -0.2556293287065364,
          0.01275081600703113,
          -0.09360197129196261,
          0.04113173171742639,
          0.0038629500707754298,
          0.2831571790036223,
          -0.04231249682533414,
          -0.1809305043900873,
          0.031691754294783804,
          0.03889028676874725,
          0.24027268783925337,
          0.14762820625783624,
          0.0630864864834609,
          0.2586778493278083,
          -0.21014560423393003
        ],
        "bias": 0.0,
        "routing": [
          [
            48,
            -0.12805134778888674
          ],
          [
            49,
            0.29917662906398296
          ],
          [
            50,
            -0.05464624374039916
          ],
          [
            51,
            -0.08847291278897891
          ],
          [
            52,
            0.09846667836713449
          ],
          [
            53,
            -0.37487607526953326
          ],
          [
            54,
            -0.16136716882608623
          ],
          [
            55,
            0.2002606464432692
          ],
          [
            56,
            -0.3546497661770169
          ],
          [
            57,
            0.22812387768224274
          ],
          [
            58,
            0.3084594599367743
          ],
          [
            59,
            -0.07541475503464712
          ],
          [
            60,
            0.05956603171865997
          ],
          [
            61,
            0.22843269463530982
          ],
          [
            62,
            -0.09528294401289081
          ],
          [
            63,
            0.17713393638060124
          ],
          [
            64,
            -0.13699767412948904
          ],
          [
            65,
            -0.09749015988744546
          ],
          [
            66,
            -0.1631638725330496
          ],
          [
            67,
            0.06994256665175462
          ],
          [
            68,
            0.23636944305997235
          ],
          [
            69,
            -0.03758189489456079
          ],
          [
            70,
            -0.2594926481439303
          ],
          [
            71,
            -0.22100660463607702
          ]
        ],
        "memory": [
          -0.0058414960796831575,
          -0.016649304658273533,
          -0.006915679171947992,
          -0.004966381184684096,
          -0.01127482665665296,
          -0.006548857745469177,
          -0.01302748525925808,
          -0.007627251263444711,
          -0.012612596049221537,
          -0.009345640584234023,
          -0.005344694959191614,
          -0.009901264342161762,
          -0.0037672144114950113,
          -0.005163091725049989,
          -0.008678502960676156,
          -0.009245800216749547,
          -0.00823922473344715,
          -0.005524367253800442,
          -0.0017501708105801606,
          -0.011678424101894,
          -0.009379423732396358,
          -0.005504588124923922,
          -0.00476240767612889,
          -0.0021769644122864615,
          -0.006580367930923632,
          -0.00208359728793525,
          -0.003234566414911353,
          -0.007956339989032286,
          -0.002728119954854099,
          -0.008298483083672318,
          -0.013060955961672461,
          -0.014409875254676737
        ],
        "memory_capacity": 32,
        "layer": 1,
        "tags": [
          "hidden"
        ]
      },
      "2": {
        "neuron_id": 2,
        "weights": [
          -0.11309316177045857,
          -0.16379703286303895,
          -0.0689092887961092,
          -0.2433660276256625,
          0.11227988539238037,
          -0.039283794013026695,
          -0.26000427616367194,
          -0.17953071378826405,
          0.05542194188197947,
          0.14816124491268107,
          0.35297548842998105,
          0.5151029772896847,
          0.07325793011428279,
          -0.17492727872927974,
          -0.3768960957271666,
          0.047325147606173346,
          -0.14370904029978776,
          -0.07342548382203017,
          -0.10820444933944247,
          -0.024888547628572753,
          0.18844046245018595,
          0.027762526754059016,
          -0.02804294225061985,
          -0.183079447896107,
          -0.29604491663447674,
          -0.08596790506260081,
          -0.00950750159828613,
          0.31252880763872054,
          0.023029499387327523,
          0.17372544309608898,
          -0.08826382588590763,
          -0.20947044313955163,
          -0.17061015180282876,
          -0.12820306703161596,
          0.3762638453388053,
          -0.14520202271396573,
          0.14822535047841953,
          -0.15961648263574246,
          0.16468039864344025,
          0.06805035963944217,
          -0.027689929906210043,
          -0.007205864662164819,
          -0.11575120491890843,
          0.07885516964169777,
          -0.08043047606920545,
          -0.21665853665528476,
          -0.22590958118362262,
          0.030509521743044155,
          0.27914653388005095,
          0.028282788722688967,
          -0.02097249122522975,
          0.05052740038833272,
          0.23087067195058444,
          0.03878171359701246,
          -0.07264235787418633,
          0.19556606220836645,
          0.0757941462783999,
          0.2714858690470598,
          0.03239157827662764,
          -0.2164575889206229,
          -0.24185866188234165,
          0.2918455840327504,
          0.3047039299161669,
          -0.03173481326635026
        ],
        "bias": 0.0,
        "routing": [
          [
            48,
            0.08054726959627632
          ],
          [
            49,
            0.37642868659228046
          ],
          [
            50,
            0.08036877894149422
          ],
          [
            51,
            -0.07897492769486965
          ],
          [
            52,
            0.1563966473237248
          ],
          [
            53,
            -0.04888745427335845
          ],
          [
            54,
            -0.07721714664834405
          ],
          [
            55,
            -0.1956446456898072
          ],
          [
            56,
            0.2874984164346892
          ],
          [
            57,
            -0.5183136457249552
          ],
          [
            58,
            0.1628623272724383
          ],
          [
            59,
            -0.09466153903355747
          ],
          [
            60,
            -0.08376045106140599
          ],
          [
            61,
            0.3454423847055912
          ],
          [
            62,
            -0.14577139877888115
          ],
          [
            63,
            -0.138818534764652
          ],
          [
            64,
            -0.02661661256261739
          ],
          [
            65,
            0.0844762438853925
          ],
          [
            66,
            -0.09019343387631838
          ],
          [
            67,
            -0.3212626089112795
          ],
          [
            68,
            -0.1767099012013284
          ],
          [
            69,
            0.2615511782075544
          ],
          [
            70,
            0.015263748165474657
          ],
          [
            71,
            0.09207780621103646
          ]
        ],
        "memory": [
          0.16387924332707132,
          -0.0014906557802098104,
          0.3355002615315404,
          0.5814020973150811,
          -0.004759079815871308,
          -0.004415495068532565,
          -0.006710446523859395,
          0.1075615992129304,
          -0.003314575260173545,
          0.6740723940044658,
          0.06817166344184966,
          -0.0012883719481077017,
          0.41526692181233643,
          0.5392245736107385,
          0.4751403428966049,
          0.45687561399600174,
          0.7329289852046392,
          -0.0018121095972200385,
          -0.0019462258976435992,
          0.6175163953818485,
          -0.0016362852181837813,
          -0.0026046299472132196,
          0.29673030808216505,
          0.10162729335476714,
          -0.005850595952474733,
          0.2701065038231656,
          0.41535414803945536,
          -0.002338557736309778,
          -0.0019764912760861183,
          -0.007559044511219146,
          -0.00022812045753668007,
          -0.0010878542540460594
        ],
        "memory_capacity": 32,
        "layer": 1,
        "tags": [
          "hidden"
        ]
      },
      "3": {
        "neuron_id": 3,
        "weights": [
          -0.06773858830999105,
          0.2583492923427089,
          -0.19569987721405924,
          -0.15816688560362238,
          0.11372518476090729,
          -0.06975698956624164,
          -0.0009054266725240285,
          -0.028892895470866903,
          0.05967531315292876,
          0.24880999213299826,
          0.016013300485844092,
          0.11383337184878715,
          -0.36242264880962693,
          -0.008612278093339547,
          -0.14906346055646363,
          -0.21545774500606918,
          -0.15523687339258424,
          -0.05906523766823138,
          0.161910224651484,
          -0.23447532130752502,
          0.005414934032844522,
          -0.08558987238835536,
          -0.0579249667589305,
          0.17726421454019026,
          0.09512626864165964,
          0.23642081772970475,
          -0.02731300338235957,
          -0.12302643500725756,
          -0.0395730218611497,
          0.0428677813809649,
          0.031214054784875517,
          -0.19169453982850532,
          0.01599648455428993,
          0.04034544997502548,
          0.44503074085032807,
          0.33178238796767473,
          -0.15083353979561806,
          -0.05080268093790194,
          -0.2587024408430402,
          -0.10442323381700948,
          0.055791609553783615,
          0.21316681811210555,
          -0.12888503143050453,
          -0.11563784591524462,
          -0.37959065852392126,
          -0.02875554387131409,
          -0.18781010876405368,
          -0.09359255232951834,
          -0.15500855059970367,
          -0.01666342283098697,
          -0.3107254162530989,
          -0.25933941033086305,
          0.37640126793427053,
          -0.22758630936788912,
          -0.19388613000822147,
          0.3247235030823271,
          0.5135481737930749,
          -0.20710567696356552,
          -0.06509783362742208,
          0.0603790615554854,
          0.30559345674510136,
          -0.17445333305463784,
          -0.04335940703512378,
          0.13741516782609323
        ],
        "bias": 0.0,
        "routing": [
          [
            48,
            -0.05336238045969598
          ],
          [
            49,
            -0.13461940351379673
          ],
          [
            50,
            0.3424324300230198
          ],
          [
            51,
            -0.03841450196016168
          ],
          [
            52,
            -0.09050249768005922
          ],
          [
            53,
            0.2237491235847904
          ],
          [
            54,
            -0.14745119080323632
          ],
          [
            55,
            -0.12139821069392416
          ],
          [
            56,
            0.0020915956164109994
          ],
          [
            57,
            5.513476612333187e-05
          ],
          [
            58,
            0.05299294448325323
          ],
          [
            59,
            0.4269601649809065
          ],
          [
            60,
            0.06863638587241355
          ],
          [
            61,
            -0.4854182324619146
          ],
          [
            62,
            0.06660549291804974
          ],
          [
            63,
            0.007732221496579636
          ],
          [
            64,
            0.008869199081047904
          ],
          [
            65,
            0.05020378430258674
          ],
          [
            66,
            -0.0058539309583338596
          ],
          [
            67,
            -0.01073939852379412
          ],
          [
            68,
            0.12513712530884663
          ],
          [
            69,
            -0.11065177937397153
          ],
          [
            70,
            -0.19344566321032808
          ],
          [
            71,
            0.6172268043847138
          ]
        ],
        "memory": [
          -0.0032589419959545775,
          -0.0019439500592321147,
          -0.0017071504225415336,
          -0.004403738220847515,
          -0.005349307975197413,
          -0.0053677562150784,
          -0.005570036383327914,
          -0.009185338474801099,
          -0.00621488689237145,
          0.17646046790774766,
          -0.009510710387920123,
          0.3377069549616023,
          -0.0025341654303195744,
          -0.003890786585334659,
          -0.00881799529328081,
          -0.003916088983162972,
          -0.010635314771343073,
          -0.006982944803160447,
          -0.00989216172259916,
          0.0013289272784986483,
          -0.00708127449041881,
          -0.009043926346457712,
          -0.007401228384292971,
          -0.0034793905512539346,
          0.1548151451184217,
          -0.0027307331977672634,
          -0.010415377361235703,
          -0.00440637327979463,
          -0.0023316752095422755,
          -0.013110453757260956,
          0.3870007287005428,
          -0.006182415788547359
        ],
        "memory_capacity": 32,
        "layer": 1,
        "tags": [
          "hidden"
        ]
      },
      "4": {
        "neuron_id": 4,
        "weights": [
          0.07685650987130038,
          -0.0664956271878233,
          -0.023656781421944856,
          -0.24304953738084353,
          -0.0421035673662686,
          -0.047091100152148964,
          0.041042225835514465,
          -0.098168910551098,
          0.08335702172058838,
          0.17902455554882027,
          0.027476282897409554,
          0.06218233542622536,
          0.009396626682159485,
          1.4918731806065797e-05,
          -0.12755464463444444,
          0.05594880965895643,
          -0.017198003364187704,
          0.37002337635240046,
          0.2781324801883358,
          0.06820867845253833,
          -0.1348907318521139,
          -0.196648423827296,
          0.21056631487292657,
          0.046447939713263144,
          0.084878164120049,
          -0.3084021454381194,
          0.1639495098607861,
          0.08033092566511513,
          -0.19629826674677414,
          -0.08335459721138501,
          0.04661905587901338,
          0.009274907226211769,
          -0.05164905668725212,
          -0.01829431403067304,
          -0.04454372820892401,
          0.026969496715627567,
          0.26012548814125835,
          -0.4537253971430531,
          -0.041869607040156305,
          0.031203282529028636,
          0.05232483932455227,
          -0.06574583061860993,
          -0.31054747126218124,
          0.05798195768320219,
          0.3053552624798826,
          -0.27115095020413144,
          0.1527046615662237,
          -0.05807560326525546,
          -0.010840715196851725,
          -0.18612791920499477,
          -0.05912405687063428,
          0.22981758718913758,
          0.10299986817584912,
          0.3062323208283816,
          0.20813898273644743,
          0.07762029204994593,
          0.30828698234964863,
          0.0776037598595884,
          0.14636901363887161,
          -0.052426833086838195,
          0.011763749413408759,
          -0.12328827870416857,
          0.1749353776763214,
          -0.20829662055029988
        ],
        "bias": 0.0,
        "routing": [
          [
            48,
            -0.14612378881975974
          ],
          [
            49,
            0.020441586406949253
          ],
          [
            50,
            -0.3053003702673106
          ],
          [
            51,
            0.023774015668889325
          ],
          [
            52,
            -0.1904938678430591
          ],
          [
            53,
            -0.09031941124751576
          ],
          [
            54,
            0.21332293161262483
          ],
          [
            55,
            0.09634854968646722
          ],
          [
            56,
            0.11602610834552352
          ],
          [
            57,
            -0.36154567366740037
          ],
          [
            58,
            0.3749546564220109
          ],
          [
            59,
            -0.24329175381392423
          ],
          [
            60,
            0.31201616965276036
          ],
          [
            61,
            0.20852176846039366
          ],
          [
            62,
            0.11784755243120525
          ],
          [
            63,
            -0.1745230375892336
          ],
          [
            64,
            0.030943147499626258
          ],
          [
            65,
            -0.09612643041929742
          ],
          [
            66,
            0.0059276777114192465
          ],
          [
            67,
            -0.051004961303011645
          ],
          [
            68,
            -0.41612962711492774
          ],
          [
            69,
            0.22898323095445702
          ],
          [
            70,
            -0.016555929002830802
          ],
          [
            71,
            -0.09895946715649305
          ]
        ],
        "memory": [
          1.170376831273806,
          -0.001997525310166033,
          0.8989951933466949,
          0.71594382279698,
          0.8160965401712308,
          0.3429000576821606,
          0.4768751374924579,
          0.2394124499101834,
          0.7018101805301692,
          0.3702361040621778,
          0.6828435126361315,
          0.30909209269309323,
          -0.0024894075031227742,
          0.26768451784729586,
          -0.0039872509774460585,
          0.3304906490575714,
          -0.00198582249913987,
          0.5251939750706409,
          0.6243425576799985,
          0.49497891347702383,
          -0.0029794024450145807,
          -0.004369766225389411,
          0.21794608732360665,
          0.6405636988378888,
          0.35343379768354743,
          0.7594057551124145,
          0.6257568280178012,
          0.719830261075911,
          0.9772006876015302,
          0.45870444899604723,
          0.3407365677028942,
          0.009973056216667997
        ],
        "memory_capacity": 32,
        "layer": 1,
        "tags": [
          "hidden"
        ]
      },
      "5": {
        "neuron_id": 5,
        "weights": [
          0.13830130809678645,
          -0.033702663900571174,
          0.2070491905589439,
          0.1327361384286398,
          0.3218478110533214,
          0.12918393490591015,
          -0.2779000812676601,
          -0.011835760644568297,
          -0.2071835583708006,
          -0.09161979777237193,
          0.267149968272973,
          0.11270112023036573,
          -0.12355461140641287,
          -0.1792016060041436,
          0.005795110043572805,
          -0.21505948283717868,
          -0.11864196031863578,
          0.05515600328207893,
          0.2042322437793706,
          0.10761484128375187,
          -0.4050465872978272,
          0.053804944516216285,
          0.012733857026463406,
          0.07316615686356666,
          0.28570820642872996,
          -0.36473244418307016,
          -0.10449331008380647,
          0.10445846697329701,
          -0.27958903123513695,
          0.26091339514111644,
          0.06511686468388557,
          0.1496563193084518,
          -0.10092953368438447,
          0.1438544558646237,
          0.18888087068619774,
          0.04116740680707228,
          0.04143661518585705,
          0.047790384436011454,
          -0.15261932280062798,
          -0.026079632554363845,
          -0.026962429245202046,
          0.06777510033741795,
          0.1767456262462506,
          -0.18712451042439313,
          -0.02209868326213202,
          0.26188681594402263,
          -0.13144906975096457,
          -0.14535464076418536,
          0.03576302002996588,
          0.14926762353141615,
          0.002019860342289118,
          0.2349292613569183,
          0.15146120878815494,
          0.14881416945921894,
          0.09795488391340773,
          0.41147482287615206,
          -0.036267805359216115,
          -0.35417604974466166,
          0.2835947844442164,
          -0.08091059284369886,
          0.019070748438094146,
          0.23149804239309155,
          -0.2832421466759029,
          -0.22126205818692546
        ],
        "bias": 0.0,
        "routing": [
          [
            48,
            -0.1143763174515498
          ],
          [
            49,
            0.07317025462606683
          ],
          [
            50,
            -0.18243724859998015
          ],
          [
            51,
            -0.4603357832214579
          ],
          [
            52,
            0.08310502307833385
          ],
          [
            53,
            0.10596145574526931
          ],
          [
            54,
            -0.04074967557341263
          ],
          [
            55,
            -0.2343146932074371
          ],
          [
            56,
            0.01815389126476486
          ],
          [
            57,
            -0.2989464178465076
          ],
          [
            58,
            -0.20968256750495545
          ],
          [
            59,
            -0.1532355746162867
          ],
          [
            60,
            0.17226834147356934
          ],
          [
            61,
            -0.07401765030967399
          ],
          [
            62,
            -0.09142034848196227
          ],
          [
            63,
            0.39899993889957475
          ],
          [
            64,
            0.07194610596495829
          ],
          [
            65,
            0.06919696468899092
          ],
          [
            66,
            -0.07546484860734927
          ],
          [
            67,
            -0.1217338568968988
          ],
          [
            68,
            -0.4462983456980912
          ],
          [
            69,
            0.197743333030423
          ],
          [
            70,
            0.09151083548669961
          ],
          [
            71,
            -0.03657210521931804
          ]
        ],
        "memory": [
          0.7579325344939006,
          0.5568188945199237,
          1.7978263139840027,
          0.5888733335260207,
          0.10667606039679772,
          1.0553091163219541,
          0.23940498582626138,
          0.5926328893616353,
          0.6033207330543108,
          1.1961198203026746,
          -9.189413975033256e-05,
          0.06408586891466794,
          0.24883339867022125,
          0.9455725877798027,
          0.9706388651167549,
          0.5631465969619217,
          1.3565104140925772,
          0.10665539384839035,
          -0.00030855582832091887,
          0.6931151755571641,
          0.41548241272063213,
          0.8421220297843821,
          -5.8580924365001506e-05,
          0.43956019805381585,
          0.22368549285618322,
          -0.0009673325115314013,
          -0.005196251176986017,
          1.2258634293508557,
          -0.0022127434028412296,
          0.3592414815150458,
          0.7882924886880023,
          0.7985419404846277
        ],
        "memory_capacity": 32,
        "layer": 1,
        "tags": [
          "hidden"
        ]
      },
      "6": {
        "neuron_id": 6,
        "weights": [
          -0.28306862197528687,
          -0.140384788965826,
          0.07771750634311367,
          0.09266419456711461,
          0.04883883641749216,
          -0.24974408418232477,
          -0.40837245132132266,
          0.00960844720283534,
          -0.08339900814673999,
          0.08120869859035787,
          0.1240890422948868,
          0.024437863512408346,
          0.1343738148183798,
          0.040519229240462896,
          0.09370308694961202,
          -0.12456981067403612,
          -0.0317511121746819,
          0.0347854280803885,
          0.14505031228107906,
          -0.06960426322808382,
          0.09213022516514012,
          -0.04699410311645102,
          -0.020778715898271207,
          0.14663963493464768,
          -0.3523266259216426,
          -0.22918609370059348,
          -0.2620158363768742,
          -0.41252894575774385,
          -0.11990134626785569,
          0.1324824481371411,
          -0.05036086379777929,
          0.03496467704813164,
          0.19254826952780937,
          0.23470396685345607,
          -0.012221975620521542,
          0.23928244035823654,
          0.016285846226703867,
          -0.1480324906554922,
          -0.10507612994484947,
          -0.2617243519572513,
          -0.15700136764410175,
          -0.06328900697884446,
          0.1420551041156331,
          0.30419200411967445,
          -0.24433748058845084,
          0.06944274166073298,
          -0.18394391887521375,
          0.08391538256546015,
          -0.023173064906080922,
          -0.3236614812926862,
          0.16410127442328667,
          -0.10695002666243716,
          -0.09438111975776367,
          -0.1891072960534001,
          -0.11566203544068117,
          0.07564105805506906,
          -0.03345398919432783,
          0.05809978263307273,
          0.06397934929317313,
          0.2334622030692548,
          -0.06059660294325939,
          -0.2610740442849943,
          0.18866005194808594,
          -0.058599383593275524
        ],
        "bias": 0.0,
        "routing": [
          [
            48,
            -0.028011283215322827
          ],
          [
            49,
            0.15026481830142868
          ],
          [
            50,
            -0.3173538647508988
          ],
          [
            51,
            -0.12040902259169414
          ],
          [
            52,
            -0.23194685061253445
          ],
          [
            53,
            0.3616078180580394
          ],
          [
            54,
            0.17874243695716738
          ],
          [
            55,
            -0.4496227525804219
          ],
          [
            56,
            -0.30899529812278326
          ],
          [
            57,
            -0.027014947449241298
          ],
          [
            58,
            -0.09643645446247615
          ],
          [
            59,
            -0.2703383861840729
          ],
          [
            60,
            0.3969729294397446
          ],
          [
            61,
            0.06379694279255538
          ],
          [
            62,
            0.09692147604659737
          ],
          [
            63,
            -0.14125695999974414
          ],
          [
            64,
            0.14743359291583205
          ],
          [
            65,
            -0.07765551215367686
          ],
          [
            66,
            -0.057837183140346006
          ],
          [
            67,
            0.12472025278436612
          ],
          [
            68,
            -0.33251773555283143
          ],
          [
            69,
            0.3259919468036627
          ],
          [
            70,
            0.037230042555034364
          ],
          [
            71,
            0.2614716417070969
          ]
        ],
        "memory": [
          -0.009882930132456638,
          -0.015271021910025447,
          -0.003926267660173044,
          -0.011562311883669218,
          -0.010859414618964516,
          -0.008784497348300939,
          -0.015487213455899132,
          -0.0096371529566396,
          -0.013075188805095799,
          -0.012768378106326524,
          -0.008692281570411376,
          -0.00971969277016698,
          -0.01097528605613707,
          -0.009929758083495938,
          -0.009085087903724712,
          -0.012036231964086541,
          -0.008819057698022981,
          -0.007002601422839726,
          -0.011460364447694533,
          -0.0036345340978660547,
          -0.0034811140869433765,
          -0.01666711164653411,
          -0.014136167363160961,
          -0.016740514530416334,
          -0.013762178482549528,
          -0.014625603093396672,
          -0.008280961368027407,
          -0.017359646483419568,
          -0.01295261611401916,
          -0.006191717379216586,
          -0.013483262430457965,
          -0.012618608321119634
        ],
        "memory_capacity": 32,
        "layer": 1,
        "tags": [
          "hidden"
        ]
      },
      "7": {
        "neuron_id": 7,
        "weights": [
          0.19703396895498862,
          0.06777213912076185,
          -0.023182059218710225,
          0.06165544994863403,
          0.3448935528613583,
          0.367161754121583,
          0.01226496778470201,
          0.0283179637042001,
          0.19025417838243974,
          -0.1494931627137526,
          0.0588790797726746,
          -0.004571948792242122,
          0.055491656247944214,
          -0.14732018347904022,
          -0.28099848841811853,
          -0.36645516121920796,
          -0.1975274708712668,
          -0.08108310108581858,
          -0.05182943977654568,
          0.3424573229199524,
          0.19551385295220305,
          -0.17007528812112507,
          0.06146675115098797,
          -0.07196194534919376,
          -0.0502688995505961,
          0.032761255857354336,
          0.10945502388203741,
          -0.05997299363236358,
          0.18806415824304182,
          -0.2018680658503578,
          0.0011205984956811077,
          0.4592081768465107,
          0.03943529968892044,
          0.2533589241290392,
          0.01617863465041914,
          0.10266785561638131,
          -0.010037945453126532,
          -0.030124089051701487,
          -0.13779432213502174,
          0.07606725221816817,
          -0.15053193022644715,
          0.11765995851371912,
          0.19185345009433444,
          0.06479421089382333,
          -0.05060210515082274,
          0.08025053488861461,
          -0.054566202686610055,
          0.16538292913399721,
          -0.32374991531370384,
          -0.059327561453216174,
          -0.3519291654549247,
          -0.26429191283501163,
          0.24109905782640523,
          0.1582478427921341,
          -0.12718733797133863,
          -0.26560759563068553,
          -0.5240596110652267,
          -0.09607733980089823,
          0.4278729671114647,
          0.07687740434582911,
          -0.09891933950741315,
          0.08221534248333169,
          -0.2759410591380388,
          -0.052559841492171355
        ],
        "bias": 0.0,
        "routing": [
          [
            48,
            -0.21951913858534813
          ],
          [
            49,
            -0.18844029185018493
          ],
          [
            50,
            -0.23717188957885346
          ],
          [
            51,
            0.051091798486252026
          ],
          [
            52,
            0.01346878510364245
          ],
          [
            53,
            -0.09479766563617102
          ],
          [
            54,
            -0.20699600720374234
          ],
          [
            55,
            -0.2585428809127612
          ],
          [
            56,
            -0.009896734741082694
          ],
          [
            57,
            -0.0950375034148107
          ],
          [
            58,
            -0.1399489412801657
          ],
          [
            59,
            0.31579831895392296
          ],
          [
            60,
            -0.016804658691730874
          ],
          [
            61,
            0.25924642829568806
          ],
          [
            62,
            -0.10884964598316722
          ],
          [
            63,
            0.04996474970344952
          ],
          [
            64,
            -0.011323994399197098
          ],
          [
            65,
            -0.34652570285704426
          ],
          [
            66,
            0.291558335868146
          ],
          [
            67,
            -0.02758811451050426
          ],
          [
            68,
            0.15236198106811819
          ],
          [
            69,
            -0.15350722016232726
          ],
          [
            70,
            -0.033648718486255814
          ],
          [
            71,
            -0.17694549701163742
          ]
        ],
        "memory": [
          -0.003311400098389683,
          0.6699278152441186,
          -0.00018452717056555325,
          0.30616362892360216,
          0.17950355634375958,
          0.3816207602328069,
          0.4567233790339662,
          1.053850124782714,
          1.1303634261905255,
          0.291577716164628,
          -0.006754907402527875,
          -0.002362072859261183,
          -0.005410335027646035,
          0.23774157771852197,
          0.75030584149807,
          0.1717684563032828,
          0.5600199564194689,
          0.016735129654727787,
          0.25559584035582517,
          0.27595316056475616,
          0.33308094932153043,
          1.0069153678468308,
          0.16036579885277746,
          -0.011877870231728252,
          0.45262430090178035,
          -0.0020956864472375615,
          0.1650802863154414,
          1.1887224809014865,
          -0.008607558337453549,
          -0.00014732796744051617,
          -0.0005058710024404234,
          0.48401648363193406
        ],
        "memory_capacity": 32,
        "layer": 1,
        "tags": [
          "hidden"
        ]
      },
      "8": {
        "neuron_id": 8,
        "weights": [
          0.01758529893618262,
          -0.015220588691811317,
          0.13979609281272254,
          0.060925244143771116,
          0.118144464861892,
          -0.12168817718655749,
          0.15871284088521706,
          0.2879580904475601,
          -0.17149982602759642,
          -0.15692390444640103,
          0.23613554060370215,
          -0.03382515763283642,
          0.2481629064762504,
          -0.07823000069904489,
          0.25721814847912694,
          0.02324362817324684,
          0.04564883801732517,
          0.2766056809418972,
          -0.0639525894584671,
          -0.16636845398825864,
          -0.07929569832360564,
          0.07996210096516612,
          -0.2767897144107997,
          0.11268999951842938,
          -0.09524221304907937,
          0.2029065289841192,
          -0.4232494243802236,
          -0.13904649835635266,
          -0.2981282664981934,
          -0.14605811462052334,
          0.04378155953570265,
          -0.03168309055617579,
          -0.044791249300925845,
          -0.02814017550378734,
          0.035954301038990805,
          -0.17828566858225298,
          0.12495454358974871,
          0.11714390033028489,
          0.06806573418267804,
          0.09838214283162836,
          0.05239979460939067,
          0.3597535331432104,
          -0.015396219738262716,
          -0.054285156518242096,
          -0.13320611547044825,
          -0.18247998358283093,
          -0.21999361000201634,
          -0.15711865182149162,
          -0.012494644290758215,
          0.059095588069590546,
          0.009040724101518268,
          -0.13532879647701876,
          0.15913165238449298,
          0.13071092866981662,
          -0.028222100195765713,
          -0.1154203583596487,
          0.09694927545269758,
          0.033229349598846804,
          -0.2559951512883677,
          -0.01201732499834252,
          0.046321824907879665,
          -0.15904507113091845,
          0.0335598876097044,
          -0.2571787111871122
        ],
        "bias": 0.0,
        "routing": [
          [
            48,
            0.2522971338020419
          ],
          [
            49,
            0.06356616686560275
          ],
          [
            50,
            0.07492448738810226
          ],
          [
            51,
            0.2772381780953637
          ],
          [
            52,
            0.2360371788258962
          ],
          [
            53,
            0.1562248909984579
          ],
          [
            54,
            -0.29020887946688373
          ],
          [
            55,
            -0.14200490562704576
          ],
          [
            56,
            -0.20491780767179438
          ],
          [
            57,
            0.1485071933387962
          ],
          [
            58,
            0.03483418174189861
          ],
          [
            59,
            -0.28383716194921804
          ],
          [
            60,
            -0.03852725114839043
          ],
          [
            61,
            -0.30498440340908034
          ],
          [
            62,
            -0.0108505226907711
          ],
          [
            63,
            -0.33790149741682624
          ],
          [
            64,
            0.10794646006227902
          ],
          [
            65,
            0.07715129796882145
          ],
          [
            66,
            0.3894583553509838
          ],
          [
            67,
            0.17307141048363103
          ],
          [
            68,
            -0.08632701097616678
          ],
          [
            69,
            0.16698785852946094
          ],
          [
            70,
            -0.28529694501947866
          ],
          [
            71,
            -0.19646389753555316
          ]
        ],
        "memory": [
          0.2796921159996277,
          -0.0038694667404832635,
          0.4395377790115371,
          -0.003898670444642405,
          -0.007141922415455094,
          -0.0011448226050161095,
          -0.004244298506777703,
          -0.0016681115506019856,
          -0.003343859091097943,
          -0.006239473611275299,
          -0.002762159242369706,
          0.0028089123258512594,
          0.12620212050253005,
          -0.0034937366523067294,
          -0.006584960578913395,
          -0.004247768174820184,
          -0.0028751667102881484,
          -0.0026414862466104254,
          -0.0015029281518257063,
          -0.005747367773205191,
          -0.0031300485568926386,
          -0.005296112268123756,
          -0.00752150565638662,
          -0.0011330055646425817,
          -0.004972078700488858,
          -0.004804371640669032,
          -0.005641791985926063,
          -0.00044935754840127215,
          -0.0024260994441904623,
          -0.003779045915939121,
          -0.006285532281755166,
          -0.0060211874376330425
        ],
        "memory_capacity": 32,
        "layer": 1,
        "tags": [
          "hidden"
        ]
      },
      "9": {
        "neuron_id": 9,
        "weights": [
          0.23620656306145313,
          0.22060847425429372,
          -0.04463917986319419,
          0.06425025673441877,
          -0.4260180410368767,
          -0.20441531799570375,
          -0.05193326665230807,
          -0.18952813244623856,
          0.12628864933098913,
          0.35307548023306806,
          -0.20799806173809163,
          -0.1480440130060524,
          0.04162178446281489,
          0.2848077884708087,
          -0.21608729138630245,
          0.04402378271091028,
          0.32196319199430384,
          -0.29199252364111883,
          -0.22646318083248995,
          -0.07488377599596999,
          -0.0920278992343008,
          0.14364897024288079,
          0.04271980665623893,
          -0.31377192718044755,
          0.0911125477463135,
          -0.10209541591202853,
          0.2252925673408683,
          -0.11094285070067635,
          -0.11253874592214615,
          0.09565945787857096,
          0.13486762230181168,
          0.07921352472116706,
          -0.2979743233681628,
          0.09511195024629313,
          -0.1828415592937034,
          0.041591333488815996,
          -0.25168306846986904,
          0.07889935428036078,
          -0.14258788873334557,
          -0.22673991474601268,
          0.1261867647635529,
          0.04271711997855263,
          -0.10853678993903593,
          0.2565346012143209,
          -0.07789707885955954,
          0.005675888498243676,
          0.047537630601448146,
          -0.1095424960231598,
          0.08328591698154623,
          -0.09430194303001425,
          -0.07276806225883366,
          0.24088346273472017,
          -0.1839513635349206,
          -0.4265233333784412,
          0.2847761183092975,
          0.4506617706892073,
          -0.07164216145142839,
          -0.3423878281456497,
          -0.05488633125447861,
          -0.05059754719088857,
          -0.03357410897395844,
          -0.19682105863373775,
          0.102452903489335,
          0.09272068046178723
        ],
        "bias": 0.0,
        "routing": [
          [
            48,
            0.06800243460023316
          ],
          [
            49,
            -0.4405508676055251
          ],
          [
            50,
            -0.007585413460776513
          ],
          [
            51,
            -0.20826037241518908
          ],
          [
            52,
            0.020679216039124065
          ],
          [
            53,
            -0.21999201287177253
          ],
          [
            54,
            0.08659928842427939
          ],
          [
            55,
            0.003945193835641309
          ],
          [
            56,
            0.2858484957953316
          ],
          [
            57,
            0.001374681017028909
          ],
          [
            58,
            -0.15689855555143356
          ],
          [
            59,
            -0.050395364290597995
          ],
          [
            60,
            -0.2743911055306916
          ],
          [
            61,
            0.08290241996359118
          ],
          [
            62,
            0.12040267734394922
          ],
          [
            63,
            0.5040225303999945
          ],
          [
            64,
            -0.1269317400565755
          ],
          [
            65,
            -0.05466333844919618
          ],
          [
            66,
            -0.11752621666094891
          ],
          [
            67,
            0.043297527935392495
          ],
          [
            68,
            0.07791225409377021
          ],
          [
            69,
            -0.010895094495857084
          ],
          [
            70,
            0.22174534922500197
          ],
          [
            71,
            -0.12594041382956522
          ]
        ],
        "memory": [
          -0.011567507241944129,
          -0.005107866252447548,
          -0.015223373297314035,
          -0.005756331061960888,
          -0.009260079309663912,
          -0.009542288887671066,
          -0.0038862657528937724,
          -0.013507654241727155,
          -0.007258821680207126,
          -0.01563290909051708,
          -0.0003465500077123268,
          -0.0037772673981681993,
          -0.009639626823200968,
          -0.006037024498057336,
          0.49142943603820227,
          -0.015495150407540265,
          -0.011357892739622533,
          0.12596184288812567,
          -0.004380977354428541,
          -0.012008363058441556,
          -0.007602741852458362,
          -0.010942162957874865,
          -0.009350623626787622,
          0.40855763829081526,
          -0.0011114957560309888,
          -0.005404820972876281,
          -0.005093479187419864,
          -0.010424897251403966,
          -0.0023851622864031704,
          -0.0049487520542026275,
          -0.0017975655503862493,
          -0.00844276199076039
        ],
        "memory_capacity": 32,
        "layer": 1,
        "tags": [
          "hidden"
        ]
      },
      "10": {
        "neuron_id": 10,
        "weights": [
          -0.2641760869043793,
          0.12360168759123157,
          0.3628668675934314,
          0.030398579290334515,
          -0.05963122739087295,
          -0.02510285896446139,
          0.10876305802359527,
          -0.30594240706529086,
          0.029060445209818497,
          -0.0690249266185086,
          0.326652399276835,
          -0.030789680292821288,
          0.29484366001991097,
          -0.19511563301830728,
          0.10381373479005405,
          0.0564625231098875,
          -0.1536273005341735,
          0.03135949890398169,
          0.21434507296001243,
          -0.05723882744825117,
          -0.2990995656855738,
          -0.003104698424751162,
          -0.15952737245678408,
          -0.06051789980174979,
          -0.01442281630155882,
          -0.30151956207260855,
          -0.2856107419535619,
          0.08521818209630976,
          -0.0924044836786429,
          -0.45338702902778794,
          0.13874213511485883,
          0.048148625236133856,
          -0.1261964322486378,
          -0.23278489297764882,
          0.14775135781328266,
          0.06175704855605547,
          0.42118855773911396,
          0.07427955188391908,
          0.06853688006842416,
          -0.02950896783730012,
          0.14438693860180057,
          0.11050049615548181,
          0.2212758104343097,
          -0.09215774273909672,
          -0.0769698941744935,
          -0.08469427525995966,
          0.13979531490491418,
          0.26487768187260424,
          -0.08111230604721253,
          -0.07509009584809587,
          0.055521533703645105,
          -0.043444905803425096,
          0.16830089854716035,
          -0.3980617479796498,
          -0.14614218617901978,
          -0.1383129738638142,
          -0.410184867781305,
          -0.17034881965630927,
          -0.16177827383974902,
          -0.0355506162346107,
          0.1967464323055762,
          -0.04332101206473421,
          -0.18222384293596644,
          -0.01006823557786376
        ],
        "bias": 0.0,
        "routing": [
          [
            48,
            0.2013019345756055
          ],
          [
            49,
            0.10992041408371572
          ],
          [
            50,
            -0.002455597116581063
          ],
          [
            51,
            -0.06428617259676819
          ],
          [
            52,
            0.49534148201292777
          ],
          [
            53,
            -0.1667711924798206
          ],
          [
            54,
            0.06081535508491143
          ],
          [
            55,
            -0.15313782644986967
          ],
          [
            56,
            0.3644883090207257
          ],
          [
            57,
            0.18102266633530928
          ],
          [
            58,
            -0.13846758918663282
          ],
          [
            59,
            0.10463301488431705
          ],
          [
            60,
            0.052601918835502935
          ],
          [
            61,
            -0.10545558794374361
          ],
          [
            62,
            0.1547596227871373
          ],
          [
            63,
            0.07946663019337051
          ],
          [
            64,
            0.04402931559959696
          ],
          [
            65,
            -0.008556825225709748
          ],
          [
            66,
            0.08798862985028776
          ],
          [
            67,
            0.046823560328899935
          ],
          [
            68,
            0.012062376092637534
          ],
          [
            69,
            -0.130846825931025
          ],
          [
            70,
            0.3457385861183457
          ],
          [
            71,
            -0.2144160730705961
          ]
        ],
        "memory": [
          0.2338420726831273,
          -0.0031612073368821225,
          -0.004936376930192907,
          -0.011916335201219349,
          -0.010825463016595292,
          -1.80391607663577e-05,
          -0.0061176749638596995,
          0.08830849954441189,
          -0.0038345161936418986,
          -0.008487961574527594,
          -0.005317137977506543,
          -0.014908742789359237,
          -0.006637555023809003,
          -0.005885297373182733,
          -0.009101818525692034,
          -0.009545369546050224,
          -0.006444627196301787,
          -0.005247174139120312,
          -0.006094595673252466,
          -0.011340587304903827,
          -0.0015032400101504528,
          -0.004311354465553667,
          -0.006972584864660256,
          -0.008542745162918416,
          -0.01003076817177388,
          -0.014099567830872337,
          -0.009202095302642977,
          -0.0011575085481488267,
          -0.015428909375944592,
          -0.0018155152970162959,
          -0.010338909837168222,
          -0.008401422165296308
        ],
        "memory_capacity": 32,
        "layer": 1,
        "tags": [
          "hidden"
        ]
      },
      "11": {
        "neuron_id": 11,
        "weights": [
          0.1854694455908065,
          -0.172526774258411,
          -0.16096841879975243,
          0.09873843918187304,
          -0.03916242242774421,
          0.11446020387878593,
          -0.0024124347549738198,
          0.12403778091905605,
          -0.18297768837397996,
          -0.002136284630163816,
          -0.03724508447111982,
          -0.21494117940430216,
          -0.2763864647933943,
          0.12122444825871159,
          -0.06204020233497636,
          -0.1807153298565301,
          -0.017002194626450366,
          0.19940744583449818,
          -0.4031812991428206,
          -0.26457084165419814,
          -0.16314481533231712,
          0.2583023712961048,
          0.049954792974320414,
          0.13564380601287057,
          -0.2015538793895111,
          -0.1979078522963515,
          0.07916302895074505,
          0.010301543643390816,
          0.09700423497978013,
          -0.03317585757937689,
          0.049169328780140714,
          0.02795176929285354,
          0.1374911487519267,
          0.14266025715916011,
          -0.2863556179721494,
          -0.3972647086572038,
          0.17708524092544883,
          0.209962116907735,
          -0.18042236453324276,
          -0.32877555696481336,
          0.01750704837694693,
          0.16455050551002945,
          0.31777281915927436,
          0.09126937858577162,
          -0.06571084920900182,
          -0.15788467975200318,
          0.002024321498416192,
          -0.05290302537176224,
          -0.17944034987641827,
          0.3621722534299222,
          0.3155761706662893,
          0.20082693197502344,
          -0.162784890187291,
          0.15114749056403642,
          0.11307104289549248,
          0.07823175296477985,
          0.22091169613498815,
          0.11231881092186398,
          0.13081727116634498,
          0.11259018798820265,
          0.06024397889210013,
          -0.3153008812051745,
          0.01478225772178256,
          -0.09832177643591142
        ],
        "bias": 0.0,
        "routing": [
          [
            48,
            0.08729087764904313
          ],
          [
            49,
            -0.06536886779071924
          ],
          [
            50,
            0.35916608237151737
          ],
          [
            51,
            -0.1844226006427932
          ],
          [
            52,
            -0.1500849848272697
          ],
          [
            53,
            -0.19796328319380738
          ],
          [
            54,
            0.0660270270376965
          ],
          [
            55,
            -0.2802727922445888
          ],
          [
            56,
            -0.09767921996155186
          ],
          [
            57,
            -0.4393498338165538
          ],
          [
            58,
            0.04907580340689999
          ],
          [
            59,
            -0.10210593047593346
          ],
          [
            60,
            -0.3037483109117007
          ],
          [
            61,
            0.2215990914378272
          ],
          [
            62,
            -0.26692638788091677
          ],
          [
            63,
            0.16267544952499083
          ],
          [
            64,
            -0.14309935896919954
          ],
          [
            65,
            0.3269193885408306
          ],
          [
            66,
            0.1530013630664332
          ],
          [
            67,
            -0.20576690999502947
          ],
          [
            68,
            -0.18719869207704698
          ],
          [
            69,
            0.12360231493280217
          ],
          [
            70,
            -0.053557711658764794
          ],
          [
            71,
            -0.034566894497168606
          ]
        ],
        "memory": [
          -0.001960728999934174,
          -0.0005592596370153192,
          0.410808324024843,
          -0.0007282647446341978,
          -0.0019147443872299455,
          -0.002058953188282781,
          -0.0057717221463630935,
          -0.008427469479239868,
          -2.6032788318399725e-05,
          0.07940085360705418,
          0.9803115952107816,
          -0.002806843547947098,
          0.3740371640723019,
          -0.0009313880671873917,
          0.23693451913956554,
          -0.0035979735864677892,
          -0.0015369684706505104,
          0.27576915791257317,
          -0.008879691139833053,
          -0.0006896010007526171,
          -0.008998001030403276,
          -0.00486681395613085,
          0.17728381499306806,
          -0.003214059458679696,
          -0.005420275075415922,
          0.2537391656252851,
          -0.003919697666822894,
          -0.0011123965479960716,
          -0.006884038247900764,
          0.2575722114002129,
          -0.0031045278650292407,
          0.5864814654087005
        ],
        "memory_capacity": 32,
        "layer": 1,
        "tags": [
          "hidden"
        ]
      },
      "12": {
        "neuron_id": 12,
        "weights": [
          -0.22624605499688585,
          0.2973059840549617,
          0.3056460825450568,
          0.2402785258993693,
          0.04511578442714452,
          0.23875904546663115,
          0.0021307214346042483,
          0.035849832425146444,
          -0.19330025527175393,
          0.07017881087080584,
          0.010674824869287705,
          -0.23027853633516518,
          -0.0090504562356704,
          -0.014094328816048786,
          0.31776692263300665,
          0.15807607710480645,
          0.0020232868988083043,
          0.04397979845837605,
          0.00781571809246552,
          -0.03587046366162895,
          -0.1913479028535018,
          -0.026702451741705022,
          -0.13189278417761335,
          -0.2210266490488674,
          0.09037210293926336,
          0.06916647356935973,
          -0.3158482493213271,
          -0.021687784780054457,
          0.17601680050166985,
          0.1872460721418394,
          0.1813440469987878,
          0.006878948119434347,
          -0.1493843204542492,
          -0.1915726973971986,
          0.060918116244780524,
          0.06704787106706839,
          0.2275701396620895,
          0.1944507674810237,
          -0.023374944925094666,
          -0.21994660353367224,
          -0.05641060966694219,
          0.03840141273394449,
          -0.03572360829475819,
          -0.10215821065736552,
          0.04470414188108022,
          -0.08908798409572481,
          -0.11102744670887248,
          0.055057602788933076,
          -0.07106291984900932,
          0.043151967190997884,
          0.048296104301545115,
          -0.20142449333811663,
          -0.08507221551776706,
          0.25416545601214346,
          -0.20542857593309335,
          -0.3741751785739344,
          -0.3291308333442717,
          0.00514596015608523,
          0.00546545423818782,
          -0.020790858353063418,
          0.2146404654207694,
          -0.47249483815899723,
          0.0699918818778746,
          0.2760258852247589
        ],
        "bias": 0.0,
        "routing": [
          [
            48,
            0.2596946701900749
          ],
          [
            49,
            -0.15282547632130017
          ],
          [
            50,
            0.01863526321031334
          ],
          [
            51,
            0.19486258239392165
          ],
          [
            52,
            0.16516041570891793
          ],
          [
            53,
            -0.03258079932584575
          ],
          [
            54,
            -0.05897266598152711
          ],
          [
            55,
            -0.3549342200031508
          ],
          [
            56,
            -0.21560510628329085
          ],
          [
            57,
            0.06498480500126631
          ],
          [
            58,
            -0.02814508396054164
          ],
          [
            59,
            0.015294425867056736
          ],
          [
            60,
            0.21213675474575203
          ],
          [
            61,
            -0.24236131475145617
          ],
          [
            62,
            -0.048210102313858916
          ],
          [
            63,
            0.038520464102209113
          ],
          [
            64,
            -0.14373604536396833
          ],
          [
            65,
            0.2921990422995062
          ],
          [
            66,
            0.18546450424829827
          ],
          [
            67,
            0.059223217395288616
          ],
          [
            68,
            0.3662460283034153
          ],
          [
            69,
            -0.30596071774259725
          ],
          [
            70,
            -0.0015771205265189144
          ],
          [
            71,
            0.07477822065052185
          ]
        ],
        "memory": [
          -0.0009625706718970051,
          -0.002222057654464282,
          0.037526908459117214,
          -0.011207866172486976,
          -0.0029968348288066473,
          0.4802142290864449,
          -0.005900281025912617,
          0.7205424802206912,
          0.37827283512649723,
          -0.005838517034199826,
          -0.003300472624004165,
          -0.0026435721594224816,
          -0.0027928021076217614,
          -0.00600059631813252,
          -0.006528048076843836,
          -0.00242487815712055,
          -0.0050453901430762916,
          0.032775830933508915,
          -0.003825967194291351,
          -0.0035371513741710835,
          0.3402072952153908,
          0.23160143433160135,
          -0.007180611509052228,
          -0.0002387620868151158,
          -0.00372277616149028,
          -0.006715383649142192,
          -0.002889544661170832,
          -0.003116292272474198,
          -0.003513019627988465,
          0.5716543198960873,
          -0.008734258880162696,
          0.1538666801087854
        ],
        "memory_capacity": 32,
        "layer": 1,
        "tags": [
          "hidden"
        ]
      },
      "13": {
        "neuron_id": 13,
        "weights": [
          -0.1993653566366706,
          -0.06714094000636081,
          -0.1330937450432247,
          -0.1580995384771993,
          -0.057675519048827756,
          0.25234613103432896,
          0.32480714447475806,
          -0.05938622602311053,
          0.3367702489834207,
          0.006289092031638845,
          0.3100117042715833,
          -0.01649302696138299,
          0.023167969381198892,
          0.06460736948908143,
          0.5619472482701479,
          0.15048745067475966,
          -0.125027886305349,
          0.17129624125684542,
          -0.0639635601565677,
          -0.08657641885419924,
          0.16061954574375767,
          0.005495207477537938,
          0.04924572955663551,
          0.0024722613043366695,
          0.05950005281391829,
          0.07512406696253199,
          -0.3424106132625266,
          0.11783451353185363,
          -0.17359814775472118,
          -0.2549648748133888,
          -0.010325746657503859,
          0.014845884233625135,
          -0.12259572794093339,
          0.14690706548476962,
          -0.23726529042026276,
          -0.0719381710796378,
          -0.10339211673793515,
          -0.008235543693479445,
          0.04929670667619955,
          -0.17817198484722996,
          0.12803629818131199,
          0.0111373504700697,
          -0.3344520063393334,
          -0.34623332226966713,
          -0.0021777638924348657,
          -0.03906187220683345,
          -0.018282265904926567,
          -0.004946646191693731,
          0.03987372302024954,
          0.16752236632812972,
          -0.1964174525121031,
          -0.20717726517453797,
          -0.19327417848630135,
          0.051073733638202355,
          0.22007768341532954,
          -0.07625076044308847,
          -0.44224223107465527,
          -0.3012262270613184,
          -0.1472614789166195,
          -0.09859346960287386,
          -0.07219359192282059,
          0.006820243421399651,
          -0.055109486133644296,
          0.18549878859572352
        ],
        "bias": 0.0,
        "routing": [
          [
            48,
            -0.18668276719435847
          ],
          [
            49,
            0.06138309880735572
          ],
          [
            50,
            -0.22588020567306977
          ],
          [
            51,
            0.1409594223263868
          ],
          [
            52,
            0.21592961784093154
          ],
          [
            53,
            0.05558982272342475
          ],
          [
            54,
            -0.37820077028772237
          ],
          [
            55,
            -0.19734590112378608
          ],
          [
            56,
            0.11527094670980774
          ],
          [
            57,
            0.004327154987038099
          ],
          [
            58,
            -0.549910981589065
          ],
          [
            59,
            0.25369168977537787
          ],
          [
            60,
            0.02789489252944563
          ],
          [
            61,
            -0.1671929156701407
          ],
          [
            62,
            0.20309446089702096
          ],
          [
            63,
            -0.13830227599505257
          ],
          [
            64,
            -0.1405297000390735
          ],
          [
            65,
            0.07314842857983679
          ],
          [
            66,
            0.3635529531180297
          ],
          [
            67,
            0.33141334491323926
          ],
          [
            68,
            0.07342580224389764
          ],
          [
            69,
            0.094384077380325
          ],
          [
            70,
            0.16156404296380153
          ],
          [
            71,
            -0.2565807183052601
          ]
        ],
        "memory": [
          -0.0043563448057426,
          -0.009328484893839657,
          -0.012758985433893475,
          -0.006571156890630231,
          -0.007547880338323486,
          -0.004295056330619932,
          -0.0009652257198635076,
          -0.011357085516202927,
          -0.004275903536259502,
          -0.006597628321368108,
          -0.007788900640695543,
          -0.0008295212550322114,
          -0.005847629525136957,
          -0.004076168894830731,
          -0.0023158677809553474,
          -0.010124561618094498,
          -0.008313629838462098,
          -0.002992095459477536,
          -0.003918002328263662,
          -0.008764453246040175,
          -0.007743381589701752,
          0.1643236363776258,
          -0.004217628634010227,
          -0.008929476288331751,
          -0.007299901098954717,
          -0.008038372390712248,
          -0.0033899474033295164,
          -5.7568396949395366e-05,
          -0.009317071142075225,
          -0.0075463263693897175,
          -0.0017473254166243102,
          -0.0007928874027813361
        ],
        "memory_capacity": 32,
        "layer": 1,
        "tags": [
          "hidden"
        ]
      },
      "14": {
        "neuron_id": 14,
        "weights": [
          -0.11950410526168877,
          -0.15243771917102575,
          0.08465403515804454,
          -0.27146573028002635,
          0.06888841185098084,
          0.0181290129112783,
          -0.02606439611404134,
          0.2807702014404538,
          -0.10999177596816322,
          0.36421270191095345,
          -0.03985102661047498,
          -0.2257467469812965,
          0.012360152464790755,
          -0.19025506984121882,
          -0.13289291444639206,
          0.0701862346994567,
          0.09821396559757221,
          -0.1099847499712563,
          0.17455021846019914,
          0.2046203962431953,
          0.2539046779740132,
          0.09358795255741816,
          0.24102242199505963,
          -0.33248133061636365,
          -0.056198469079699206,
          -0.1532663240176689,
          0.021076353723996136,
          -0.1010189044994427,
          -0.02937283419749459,
          0.3327246552928153,
          -0.03000250473761246,
          0.07314883837202377,
          -0.04105980456277055,
          0.013384344835051713,
          0.0010636088841446407,
          0.07925324680468655,
          0.20599921513829816,
          0.2912208667478323,
          0.054733614877376546,
          0.10421815023579675,
          -0.20344602466801054,
          -0.015534560117667205,
          0.16622126422436398,
          0.15308307412991262,
          0.03740766925611334,
          0.1566937949033234,
          0.08675611697753359,
          0.21218617367895445,
          0.05115195552069896,
          -0.06287917274922779,
          0.05936890754488866,
          -0.5180607890181639,
          0.06768527515436833,
          -0.644954362319336,
          -0.30466816562581117,
          0.0798621603131323,
          0.08441605814921721,
          -0.2054903182708378,
          -0.12588304567734612,
          0.2422797067357919,
          -0.08556524708341404,
          0.39649604064030014,
          -0.0003393852999692237,
          0.07213128691054434
        ],
        "bias": 0.0,
        "routing": [
          [
            48,
            0.13148622872371846
          ],
          [
            49,
            -0.1498421192222372
          ],
          [
            50,
            0.06500906315997002
          ],
          [
            51,
            -0.04643163505328304
          ],
          [
            52,
            0.10230872135531532
          ],
          [
            53,
            0.024107768843373
          ],
          [
            54,
            -0.6272796773032489
          ],
          [
            55,
            0.03651611774089711
          ],
          [
            56,
            0.13107892249624828
          ],
          [
            57,
            0.09102474293927386
          ],
          [
            58,
            -0.020940268582635223
          ],
          [
            59,
            0.3352048516979166
          ],
          [
            60,
            0.0635587738301509
          ],
          [
            61,
            0.08933968829275639
          ],
          [
            62,
            0.2132060150747535
          ],
          [
            63,
            0.07401398613015023
          ],
          [
            64,
            -0.18330710631877373
          ],
          [
            65,
            -0.4977235403748039
          ],
          [
            66,
            -0.09739189629672902
          ],
          [
            67,
            0.15532735503854553
          ],
          [
            68,
            -0.07207548683519041
          ],
          [
            69,
            0.16353985042031824
          ],
          [
            70,
            0.03035901178163006
          ],
          [
            71,
            0.2629253855945215
          ]
        ],
        "memory": [
          0.8770988884956795,
          1.155276526114651,
          -0.001573713319617856,
          -0.0003449051137496206,
          -3.3939000343048975e-05,
          0.8040351426032089,
          0.6021654746196672,
          0.9082353823437063,
          0.1468637677377182,
          -0.0010855123666340782,
          0.42222765143205865,
          0.2779736751184907,
          0.5068520648147006,
          0.589633302946336,
          0.9021735897049765,
          0.16766469251646676,
          0.7675816723190992,
          0.061784569964413255,
          0.06383318016108747,
          0.3341074115103168,
          0.6069838514842623,
          0.4934592941086221,
          0.9462186676345865,
          0.15096856590092822,
          0.5965991474742427,
          0.20562173410144413,
          -0.0038311329683608886,
          0.006865468373472683,
          0.49044183307138894,
          0.33632073085855374,
          0.27858493289777353,
          -0.0017100047999002372
        ],
        "memory_capacity": 32,
        "layer": 1,
        "tags": [
          "hidden"
        ]
      },
      "15": {
        "neuron_id": 15,
        "weights": [
          0.2858257128763214,
          0.023162540594921167,
          -0.17719105645699587,
          -0.019397256293837966,
          -0.006295148260764625,
          -0.24125451920986493,
          -0.045225148122524206,
          -0.13120226565215776,
          0.1634049095874057,
          0.006118572736492464,
          -0.049991697978244154,
          -0.0187704907956758,
          0.03944277306175744,
          0.10903837583319914,
          -0.176725824031809,
          -0.18412841955663595,
          0.19528154106174095,
          -0.07289154961730397,
          -0.25046466288644703,
          0.07845574409539195,
          0.08191298301070203,
          -0.2705947846179819,
          0.04056701929065946,
          0.1300339481955685,
          0.06618279969646713,
          0.11171959818800466,
          -0.24824205046767145,
          0.05852018461071392,
          -0.05349612101064868,
          -0.0853460487810815,
          0.15389394370516904,
          0.26150125943353997,
          0.31720280839149734,
          0.23242739047481908,
          -0.01939844598966479,
          0.06235270478428794,
          0.13555641315189532,
          0.0214214374199823,
          0.023116061002151248,
          0.14562035639332618,
          -0.010479790252904601,
          -0.12892093453514458,
          -0.07326917886792848,
          0.11206058169001377,
          0.0005291441263886791,
          0.060141195417730046,
          0.11845439402337786,
          -0.06626323507119636,
          0.13368705119062743,
          0.06697054347694924,
          -0.21828617681325008,
          0.25496587459641024,
          -0.08852000098850889,
          -0.29258228516912993,
          -0.18473937342120486,
          -0.18049698925333738,
          0.009223026854937134,
          -0.048410387375777145,
          -0.05954404210976774,
          0.10954886552682316,
          0.060082043164397005,
          0.0558698981280359,
          0.07244812032508506,
          0.10891825046712621
        ],
        "bias": 0.0,
        "routing": [
          [
            48,
            -0.06026085799919042
          ],
          [
            49,
            0.09545147677090722
          ],
          [
            50,
            0.1032633563838807
          ],
          [
            51,
            0.30651319872951
          ],
          [
            52,
            -0.3483658813764105
          ],
          [
            53,
            -0.09357219721040787
          ],
          [
            54,
            0.17320262472795586
          ],
          [
            55,
            0.31555479755186844
          ],
          [
            56,
            0.04900439231260149
          ],
          [
            57,
            -0.05974798736836276
          ],
          [
            58,
            0.1545461398450654
          ],
          [
            59,
            0.1773231910423595
          ],
          [
            60,
            -0.07341563273064569
          ],
          [
            61,
            0.06742369776209839
          ],
          [
            62,
            0.24097411836283536
          ],
          [
            63,
            0.3858883260981652
          ],
          [
            64,
            0.1515836025488973
          ],
          [
            65,
            0.009009814553344748
          ],
          [
            66,
            -0.011038049087004238
          ],
          [
            67,
            0.11377809579236971
          ],
          [
            68,
            -0.023611620097665622
          ],
          [
            69,
            0.038710204764301946
          ],
          [
            70,
            -0.2159380882585135
          ],
          [
            71,
            0.26476069155068327
          ]
        ],
        "memory": [
          -0.001652756397006681,
          0.2776014117913127,
          0.05461046256665571,
          0.3819474571357334,
          0.9996872675861816,
          -7.306070465253167e-05,
          1.1323149311628493,
          0.4104443864341569,
          0.5243091610643194,
          0.1868819515571012,
          0.341230337681732,
          0.520611729071685,
          0.3638401571227347,
          0.5385252331887289,
          0.17166003618388276,
          0.33214508034945,
          0.623385211041122,
          0.7365271421851504,
          0.4129429191877918,
          0.47623231377072356,
          0.30335264139948986,
          0.30618610883091346,
          0.26325059540555784,
          0.36247226628220935,
          0.24617720815749225,
          0.3119058704819962,
          -7.553623213858551e-05,
          0.11645762864935633,
          0.6483917029432542,
          -0.000121871177426299,
          0.9095940117863619,
          0.3757912204522271
        ],
        "memory_capacity": 32,
        "layer": 1,
        "tags": [
          "hidden"
        ]
      },
      "16": {
        "neuron_id": 16,
        "weights": [
          -0.37263702559891854,
          -0.06442418987499354,
          -0.3854103302529168,
          0.006374554691952911,
          -0.0008190015192208747,
          0.18482574036329494,
          0.20994608316586796,
          0.035845902918669584,
          -0.08845217771728871,
          0.08576517816227526,
          -0.09332353531500064,
          -0.0002461883198553099,
          0.1743259192243214,
          -0.09860097527516737,
          0.14242520731638061,
          0.11974877534684393,
          -0.1687849421286575,
          0.1721617855550713,
          0.12349024998022376,
          0.018018121534915593,
          -0.13476102165723283,
          -0.15188760054277006,
          -0.0950462135295902,
          0.09591805610700505,
          -0.16893225903551454,
          0.0773419694628212,
          -0.2195134387614498,
          -0.036074569970962415,
          0.019383167700289947,
          0.4322420266137017,
          -0.24347730996321168,
          0.26021787049263734,
          0.026488646759941926,
          0.07268561286564168,
          0.020921153024019402,
          0.07861733723034153,
          -0.02716794486543625,
          0.2570421858735247,
          -0.08069346037432094,
          0.2001526859704489,
          -0.11390909006906895,
          -0.010651122292340071,
          -0.18949799747561327,
          0.08043758956461565,
          0.25546459095286267,
          -0.013674769829502973,
          -0.034804803168046475,
          -0.19703830325272167,
          -0.040533597550773695,
          -0.2815689055210248,
          -0.16137555370120146,
          0.040090487770563676,
          0.23317079414937344,
          0.4966030124395708,
          -0.10369457284913045,
          0.25372761845052616,
          0.043089757955761566,
          -0.02673705916321746,
          0.0764726175798097,
          0.010945391369331335,
          0.01951539154860229,
          -0.07218378710452213,
          -0.2471532053215461,
          -0.2728769620784554
        ],
        "bias": 0.0,
        "routing": [
          [
            48,
            -0.23273923283572703
          ],
          [
            49,
            -0.08820444374713633
          ],
          [
            50,
            0.019921140951773417
          ],
          [
            51,
            0.40640849502525866
          ],
          [
            52,
            -0.08627980298706278
          ],
          [
            53,
            -0.13594990873561502
          ],
          [
            54,
            -0.11243503243004814
          ],
          [
            55,
            0.3386209663663314
          ],
          [
            56,
            -0.574067926145009
          ],
          [
            57,
            -0.20468303962139647
          ],
          [
            58,
            0.557521973138819
          ],
          [
            59,
            0.12061329818435172
          ],
          [
            60,
            -0.22575823242324936
          ],
          [
            61,
            -0.00855647228127258
          ],
          [
            62,
            0.013769105640593114
          ],
          [
            63,
            0.17271459257963967
          ],
          [
            64,
            0.3754867739785818
          ],
          [
            65,
            0.07931277981954975
          ],
          [
            66,
            -0.11018382595871545
          ],
          [
            67,
            0.16066293896864764
          ],
          [
            68,
            -0.1425302349030225
          ],
          [
            69,
            -0.21092913310486508
          ],
          [
            70,
            -0.35923989417420216
          ],
          [
            71,
            -0.3194804957056196
          ]
        ],
        "memory": [
          0.9443174636658552,
          -0.0021821759035380796,
          0.602868163121733,
          0.24171142946374546,
          -0.0005015080633530022,
          0.16093786236052388,
          0.13419509804384533,
          0.6047237469673439,
          0.14698199936322043,
          0.29627309084636944,
          0.0808619567028741,
          0.12313955328258075,
          -0.001956644473613628,
          -0.004879449695773241,
          -0.004930860517202658,
          -0.004242705325205201,
          -0.0010045933360293647,
          -0.004922635683256126,
          -0.0007282476549190354,
          0.5465617223983904,
          0.7663668652764408,
          -0.0044080534778481095,
          -0.0035176752772533098,
          0.5816647072318198,
          -0.00133513714002381,
          -0.0065823953530400724,
          -0.0009096327543186944,
          0.08568982468202213,
          0.30288000434840323,
          0.3586629811000076,
          -0.0014801435993866707,
          0.26600703779852364
        ],
        "memory_capacity": 32,
        "layer": 1,
        "tags": [
          "hidden"
        ]
      },
      "17": {
        "neuron_id": 17,
        "weights": [
          0.11547847168589259,
          -0.04891412751363414,
          -0.10537462578422573,
          0.0015035965835458502,
          0.14052549665513497,
          0.031884141798877566,
          -0.1159752236324347,
          0.21678001616516665,
          0.27916319447745025,
          0.08742609116493191,
          0.17212101786632777,
          0.2195495839273672,
          0.19977522251097835,
          0.10855842311435372,
          0.10577381362239902,
          0.09186387883215032,
          -0.19398372773092282,
          0.12387152398746448,
          -0.2396763132527621,
          -0.14046666576151554,
          0.23043992479125008,
          0.14853134368268284,
          0.2629373542405366,
          -0.04802569974499008,
          -0.20369074232028606,
          -0.042503693124481434,
          0.018036755543017573,
          0.013963364240310376,
          0.2004082885569189,
          -0.0638641918405206,
          0.06223149055581805,
          -0.17476624035758406,
          0.07960560024756204,
          0.0005495192289806109,
          -0.13254952403127626,
          -0.04168913529918418,
          -0.03255797982275197,
          -0.04775713098164738,
          0.31313185105072056,
          -0.01740295895315205,
          -0.04311514835285421,
          -0.37078044883308725,
          -0.1580750205928886,
          -0.04650525059576351,
          -0.12124276955486135,
          0.24425370222359627,
          -0.029157154864122473,
          0.22776691646843678,
          0.010907941291912394,
          0.006581013895650094,
          -0.01569714258069653,
          0.0006710888161560448,
          0.30384290053152707,
          -0.41005311864971056,
          -0.35382664218691656,
          -0.09601994449562767,
          0.0025681909585831292,
          0.1219943796193687,
          0.0836307914544427,
          -0.06792572266026664,
          0.18014317645415853,
          0.18211453887912632,
          0.032537135155653346,
          0.17017542436650648
        ],
        "bias": 0.0,
        "routing": [
          [
            48,
            -0.1829861012411724
          ],
          [
            49,
            -0.24041532959485548
          ],
          [
            50,
            0.06393913840578269
          ],
          [
            51,
            -0.2448268724859492
          ],
          [
            52,
            -0.6416981967952279
          ],
          [
            53,
            -0.21308759868562344
          ],
          [
            54,
            -0.09631794726057505
          ],
          [
            55,
            -0.12358685919297561
          ],
          [
            56,
            0.3101716763228121
          ],
          [
            57,
            -0.12523885047830943
          ],
          [
            58,
            0.17981774894028915
          ],
          [
            59,
            -0.0038748069341358322
          ],
          [
            60,
            -0.008635415967190566
          ],
          [
            61,
            -0.1705212874047096
          ],
          [
            62,
            -0.011998958508390544
          ],
          [
            63,
            -0.15617459292319663
          ],
          [
            64,
            0.03470606781585951
          ],
          [
            65,
            -0.048224254320668195
          ],
          [
            66,
            -0.1928213694249415
          ],
          [
            67,
            0.2024695842517751
          ],
          [
            68,
            0.08712844813476078
          ],
          [
            69,
            -0.09146042261706859
          ],
          [
            70,
            0.029698643863271864
          ],
          [
            71,
            -0.01711020055277353
          ]
        ],
        "memory": [
          1.0248019711413014,
          0.7133185316023776,
          0.6067811073881864,
          0.7499322135970119,
          0.4972537633109792,
          0.6810532298289402,
          0.5399829300411164,
          0.21789518963273316,
          0.5626386468476867,
          0.9210291683047884,
          0.6950567922538586,
          0.4751406874355133,
          0.5064751545699637,
          0.8535960395477011,
          1.7369195325512934,
          0.885299174329198,
          1.0186121635427854,
          -0.0015875773384222323,
          0.8438176855784872,
          1.3274743667048639,
          1.2388894119507816,
          1.1689969491808267,
          1.360338735642511,
          -0.0007784155926126643,
          0.6701338300403166,
          0.588778289439975,
          1.2709850560283225,
          0.5042394216506644,
          0.220989739515288,
          0.45781255676320465,
          1.01349445930174,
          1.210602603731394
        ],
        "memory_capacity": 32,
        "layer": 1,
        "tags": [
          "hidden"
        ]
      },
      "18": {
        "neuron_id": 18,
        "weights": [
          0.04819732865781273,
          -0.09925711393983123,
          0.12335775472076616,
          0.019553822265900456,
          0.00023685368146212371,
          0.2603838648170492,
          -0.4332570754779508,
          -0.2506135225751638,
          -0.20984638705883085,
          -0.06421601680852974,
          -0.0450087908467639,
          -0.26646004674918183,
          -0.1741529812968453,
          -0.1521767471030066,
          0.4344153099395145,
          0.3185059873000664,
          -0.07278770134860692,
          -0.06427305252551367,
          -0.20315248484463222,
          -0.33731298864496884,
          -0.020661693098953774,
          -0.17639697599307394,
          -0.014999596581372742,
          -0.2828791017882549,
          -0.13469932664053239,
          0.026273806739172744,
          0.06473732248215505,
          0.07379931324542727,
          -0.23343167879489415,
          0.15108851889055783,
          -0.14145877926299014,
          0.11187453073660086,
          -0.0018806700948937854,
          -0.2433132335346025,
          -0.05589638527624467,
          0.06458779490324568,
          0.1083579942915453,
          -0.02492337458704548,
          0.2707828102056028,
          0.17810442457077064,
          -0.045370466531426686,
          0.13260405501949374,
          0.3418496216977336,
          0.34656798890637,
          -0.21708176075646504,
          -0.1637894614732726,
          0.2624990359027017,
          -0.1870794268621297,
          -0.23379445093717197,
          -0.08594779169759867,
          0.0742862889762972,
          -0.01810135140396891,
          -0.1150044868955163,
          -0.11918505091146898,
          -0.12592459218418622,
          -0.15547680563590016,
          0.40333951992501926,
          0.052593023978344894,
          0.15675833516204032,
          -0.08645749855810962,
          -0.03287280686129323,
          -0.12613971474240937,
          -0.46876023633756414,
          -0.2435999260492742
        ],
        "bias": 0.0,
        "routing": [
          [
            48,
            -0.1770962584798361
          ],
          [
            49,
            0.014389982491019552
          ],
          [
            50,
            -0.12676349362903716
          ],
          [
            51,
            -0.19288381149668324
          ],
          [
            52,
            -0.3312459942009579
          ],
          [
            53,
            -0.07320041951495806
          ],
          [
            54,
            0.11573240125911195
          ],
          [
            55,
            -0.14179674673582598
          ],
          [
            56,
            0.5145375071654456
          ],
          [
            57,
            0.18078982699604854
          ],
          [
            58,
            0.26624527342957194
          ],
          [
            59,
            0.16232830009122257
          ],
          [
            60,
            0.3782144792395204
          ],
          [
            61,
            -0.16064610717216735
          ],
          [
            62,
            -0.522708330011017
          ],
          [
            63,
            -0.0910650084711077
          ],
          [
            64,
            0.1139458895862275
          ],
          [
            65,
            0.03092827234618682
          ],
          [
            66,
            0.056230611248607246
          ],
          [
            67,
            0.2696296252232961
          ],
          [
            68,
            0.07798717581654276
          ],
          [
            69,
            0.16307741845925725
          ],
          [
            70,
            -0.19178744157246433
          ],
          [
            71,
            -0.22359630050367554
          ]
        ],
        "memory": [
          -0.007560546856159573,
          -0.007366594329888634,
          0.04216396703698283,
          -0.01621775166668357,
          -0.011272935725093403,
          -0.007766317150902575,
          -0.012454518595421123,
          -0.007960788916350697,
          -0.012761081472096892,
          -0.010686330472558323,
          -0.0049203928071622615,
          -0.014205344075445306,
          -0.005096171994992296,
          -0.009337283982720044,
          -0.011301986123786904,
          -0.01182503693440028,
          -0.004663866222940491,
          -0.010845321974065297,
          -0.011738949011296178,
          -0.017623110754350264,
          -0.0054422572526037225,
          -0.01514718746653407,
          -0.013148234416341994,
          -0.018791162921303912,
          -0.013414110722641783,
          -0.012869888225803528,
          -0.012139950504880797,
          -0.014328249425550785,
          -0.00853587962930884,
          -0.010464332424682806,
          -0.011852544363674791,
          -0.015779757599164244
        ],
        "memory_capacity": 32,
        "layer": 1,
        "tags": [
          "hidden"
        ]
      },
      "19": {
        "neuron_id": 19,
        "weights": [
          -0.32007518668929313,
          -0.3977093413982679,
          -0.21131160916959613,
          0.2342212864155951,
          -0.007855278878422918,
          0.2281415969727315,
          0.07265214176903267,
          0.13833816308514268,
          -0.1592575936326126,
          0.09262231817969992,
          0.12881969411528277,
          -0.10193780267282626,
          0.09891369760258131,
          0.10008880087826906,
          -0.09714809625498079,
          -0.19847929304025239,
          -0.2093262933200958,
          0.0152921638257207,
          0.05780772393396191,
          -0.14010009724557285,
          0.004699668782960828,
          0.10085765179289934,
          0.1092817116015981,
          0.27433623913180144,
          0.22574045147311933,
          -0.1770049905115366,
          0.29761880636912286,
          -0.09386427175551892,
          0.18470916279099636,
          0.01201845107767973,
          -0.07285840509218564,
          -0.31955867696912066,
          -0.03032860714623213,
          -0.27566261503830347,
          0.17099596227524747,
          0.2681335933792811,
          -0.14087529113344247,
          0.05338138993882839,
          -0.12823231605676755,
          -0.11110145363798032,
          0.13691261427406778,
          -0.006812666571154941,
          0.30752923183182945,
          -0.08524746394980821,
          0.1766593743447014,
          0.017220421220243285,
          0.14067500675232045,
          -0.07904705293937396,
          -0.008760847525111663,
          -0.02041751019293083,
          -0.14779541384167907,
          0.11704058570028826,
          0.11494887032606763,
          0.10492663744320964,
          0.2716997090839957,
          0.25621038430791476,
          -0.06628148319055263,
          0.06594695602554268,
          -0.1102380690317718,
          0.004128675600339403,
          -0.10602172562121139,
          0.28639067539727203,
          0.06429335710312838,
          -0.03854246874470684
        ],
        "bias": 0.0,
        "routing": [
          [
            48,
            0.32947962484433324
          ],
          [
            49,
            0.020596439614484922
          ],
          [
            50,
            -0.1272161243545369
          ],
          [
            51,
            -0.1268416198471345
          ],
          [
            52,
            -0.13250170235469244
          ],
          [
            53,
            -0.14471565417544938
          ],
          [
            54,
            -0.26192144841270326
          ],
          [
            55,
            -0.3062720320918122
          ],
          [
            56,
            -0.039805101905193076
          ],
          [
            57,
            -0.1210304864650506
          ],
          [
            58,
            0.2259979427767087
          ],
          [
            59,
            0.059824021335544514
          ],
          [
            60,
            0.054157744660837365
          ],
          [
            61,
            -0.1516888179964568
          ],
          [
            62,
            -0.02470482191986235
          ],
          [
            63,
            0.07368904170655169
          ],
          [
            64,
            0.14619284318760076
          ],
          [
            65,
            -0.01916558883232616
          ],
          [
            66,
            0.22027521905400566
          ],
          [
            67,
            0.0016308108518276623
          ],
          [
            68,
            0.1618392403670213
          ],
          [
            69,
            -0.09999066336823412
          ],
          [
            70,
            -0.3699930509831669
          ],
          [
            71,
            0.05477854904458709
